tree
version=v4
num_class=1
num_tree_per_iteration=1
label_index=0
max_feature_idx=11
objective=binary sigmoid:1
feature_names=Sex Gallstone Other Ultrasond Dilatation GBMorphology IntramuralNodule GBMass Line LymphNodes FIB IBIL
feature_infos=[0:1] [0:1] [0:1] [0:3] [0:1] [0:1] [0:1] [0:1] [0:1] [0:1] [-1.8906463458026399:4.2435528665619904] [-0.61930382715430798:14.245639537919001]
tree_sizes=1085 992 975 1105 1213 1306 1097 994 1201 1101 1308 996 996 998 994 1299 1630 993 1204 890 1204 1408 1730 1204 1098 1524 1531 1316 1421 1426 1421 1422 1745 1746 1526 1409 1299 1619 1833 1620 1642 1643

Tree=0
num_leaves=9
num_cat=0
split_feature=8 6 7 9 0 11 6 4
split_gain=271.547 67.5915 16.7274 9.93638 5.90962 4.06175 0.405713 1.28114
threshold=1.0000000180025095e-35 1.0000000180025095e-35 1.0000000180025095e-35 1.0000000180025095e-35 1.0000000180025095e-35 -0.19580926474590896 1.0000000180025095e-35 1.0000000180025095e-35
decision_type=2 2 2 2 2 2 2 2
left_child=1 2 3 5 -3 -1 7 -2
right_child=6 4 -4 -5 -6 -7 -8 -9
leaf_value=0.059814006536002551 0.0098255924887238888 0.061324669811666878 0.12135209211618106 0.11812267354156619 0.020298775451592616 0.090635886781842284 0.0038192851947789347 0.028378130641611828
leaf_weight=7.4920092523098001 24.224163249135021 5.7438737601041776 47.948859214782715 7.2422756105661383 7.4920092523097992 7.4920092523098001 16.981887638568878 6.2433410435914984
leaf_count=30 97 23 192 29 30 30 68 25
internal_value=0.0669884 0.0995936 0.11133 0.0894213 0.0377142 0.0750918 0.00978332 0.013396
internal_weight=130.86 83.411 70.1752 22.2263 13.2359 14.984 47.4494 30.4675
internal_count=524 334 281 89 53 60 190 122
is_linear=0
shrinkage=1


Tree=1
num_leaves=8
num_cat=0
split_feature=8 6 7 9 1 11 10
split_gain=255.606 63.7996 15.8208 9.39335 4.42021 3.83109 3.4422
threshold=1.0000000180025095e-35 1.0000000180025095e-35 1.0000000180025095e-35 1.0000000180025095e-35 1.0000000180025095e-35 -0.19580926474590896 0.62954875228933516
decision_type=2 2 2 2 2 2 2
left_child=1 2 3 5 -2 -1 -3
right_child=4 6 -4 -5 -6 -7 -8
leaf_value=-0.0053276119928448214 -0.026742286358675232 -0.01253932657709206 0.054513029804232976 0.051378842938060082 -0.057215011728932182 0.024605178353541399 -0.04427565964002516
leaf_weight=7.4932958185672769 5.4994551241397849 7.496717691421507 47.823718070983887 7.2247690111398688 41.998639643192291 7.4846179783344278 5.7471070885658264
leaf_count=30 22 30 192 29 168 30 23
internal_value=0.00163075 0.0333192 0.0447474 0.0234279 -0.0538134 0.00949513 -0.0267646
internal_weight=130.768 83.2702 70.0264 22.2027 47.4981 14.9779 13.2438
internal_count=524 334 281 89 190 60 53
is_linear=0
shrinkage=0.03


Tree=2
num_leaves=8
num_cat=0
split_feature=8 6 7 9 5 1 10
split_gain=240.892 60.2997 15.0162 8.8994 5.76342 4.15492 2.60402
threshold=1.0000000180025095e-35 1.0000000180025095e-35 1.0000000180025095e-35 1.0000000180025095e-35 1.0000000180025095e-35 1.0000000180025095e-35 -0.32014353540808044
decision_type=2 2 2 2 2 2 2
left_child=1 2 3 6 -3 -2 -1
right_child=5 4 -4 -5 -6 -7 -8
leaf_value=-0.0042335501835983501 -0.025953196656864012 0 0.053097935374076005 0.050042853228669713 -0.041230134073987443 -0.055533523683755574 0.02049528421531421
leaf_weight=6.7366370707750329 5.4996940195560446 4.9990027248859397 47.630762100219727 7.1981737762689582 8.2485141009092313 41.975409403443336 8.2329533845186234
leaf_count=27 22 20 192 29 33 168 33
internal_value=0.00158365 0.0324102 0.0435556 0.0227712 -0.0259738 -0.0522316 0.00921346
internal_weight=130.521 83.046 69.7985 22.1678 13.2475 47.4751 14.9696
internal_count=524 334 281 89 53 190 60
is_linear=0
shrinkage=0.03


Tree=3
num_leaves=9
num_cat=0
split_feature=8 7 9 4 0 1 0 10
split_gain=227.311 54.2856 18.7474 8.72738 5.41799 3.92575 1.40625 0.190281
threshold=1.0000000180025095e-35 1.0000000180025095e-35 1.0000000180025095e-35 1.0000000180025095e-35 1.0000000180025095e-35 1.0000000180025095e-35 1.0000000180025095e-35 0.65911115813205612
decision_type=2 2 2 2 2 2 2 2
left_child=1 2 3 4 -1 -2 -5 -3
right_child=5 7 -4 6 -6 -7 -8 -9
leaf_value=-0.0060063293424315184 -0.025196014109792043 0.053130684539416627 0.038277297888010861 0.020519454888151389 -0.043775431014930817 -0.053986055197964219 -0.0013575094335517058 0.042964863528072245
leaf_weight=6.4897605180740356 5.4980459809303275 40.733174309134483 9.1628049910068494 4.9885002970695496 7.7419463694095612 41.887304201722145 4.9889544099569321 8.6427581459283811
leaf_count=26 22 165 37 20 31 168 20 35
internal_value=0.00153988 0.0315557 0.00188801 -0.0118622 -0.0269239 -0.0507689 0.00937786 0.0515023
internal_weight=130.133 82.7479 33.372 24.2092 14.2317 47.3854 9.97745 49.3759
internal_count=524 334 134 97 57 190 40 200
is_linear=0
shrinkage=0.03


Tree=4
num_leaves=10
num_cat=0
split_feature=8 6 7 9 5 11 6 4 10
split_gain=214.734 55.3917 13.3096 7.96142 5.18498 3.55093 0.443108 1.11399 0.444729
threshold=1.0000000180025095e-35 1.0000000180025095e-35 1.0000000180025095e-35 1.0000000180025095e-35 1.0000000180025095e-35 -0.19580926474590896 1.0000000180025095e-35 1.0000000180025095e-35 -0.71923601428481487
decision_type=2 2 2 2 2 2 2 2 2
left_child=1 2 3 5 -3 -1 7 8 -2
right_child=6 4 -4 -5 -6 -7 -8 -9 -10
leaf_value=-0.0051387114395894896 -0.040300672188544405 -0.00040393536475430485 0.050582579541468643 0.047882717807343579 -0.039677363939664888 0.023683570181559831 -0.055195611570966086 -0.032026600311873613 -0.053382891819198967
leaf_weight=7.4933101534843454 8.2019144445657783 4.9958014190196982 47.068925678730011 7.1308417320251456 8.2401967793703061 7.4702435582876214 16.895549774169922 6.2305794656276694 15.906893849372862
leaf_count=30 33 20 192 29 33 30 68 25 64
internal_value=0.00149968 0.0307451 0.0415145 0.0219201 -0.0251931 0.00911276 -0.0494116 -0.0459212 -0.049241
internal_weight=129.634 82.3993 69.1633 22.0944 13.236 14.9636 47.2349 30.3394 24.1088
internal_count=524 334 281 89 53 60 190 122 97
is_linear=0
shrinkage=0.03


Tree=5
num_leaves=11
num_cat=0
split_feature=7 9 10 4 6 6 3 0 10 10
split_gain=207.944 26.8717 9.69929 7.17281 5.75806 2.10729 3.81628 2.88865 1.05899 0.45325
threshold=1.0000000180025095e-35 1.0000000180025095e-35 0.29327638582838206 1.0000000180025095e-35 1.0000000180025095e-35 1.0000000180025095e-35 2.5000000000000004 1.0000000180025095e-35 -0.42361195585760397 1.0286412311660702
decision_type=2 2 2 2 2 2 2 2 2 2
left_child=1 3 -3 5 8 6 7 -1 -5 -2
right_child=9 2 -4 4 -6 -7 -8 -9 -10 -11
leaf_value=-0.015201683887155737 0.048382681674777897 0.026955158797721968 -0.023079648701417523 -0.021475470062324625 -0.046164001341453702 -0.054866655575181111 -0.05251346427555359 -0.04076036573858921 -0.0033138488602118604 0.034469843291630491
leaf_weight=7.7034533172845849 46.310915410518646 8.5900021791458112 5.6830190122127524 4.9751209616661081 6.213982641696929 15.375266447663305 12.881753444671633 9.9275731444358826 7.9561315029859552 5.140875741839408
leaf_count=31 190 35 23 20 25 62 52 40 32 21
internal_value=0.000180308 -0.0302563 0.00680235 -0.0384337 -0.0225077 -0.0449496 -0.0396916 -0.029911 -0.0106427 0.0471203
internal_weight=130.758 79.3063 14.273 65.0333 19.1452 45.888 30.5128 17.631 12.9313 51.4518
internal_count=531 320 58 262 77 185 123 71 52 211
is_linear=0
shrinkage=0.03


Tree=6
num_leaves=9
num_cat=0
split_feature=7 8 6 9 11 10 10 10
split_gain=196.911 55.6694 35.367 9.15911 5.02361 0.433727 0.220073 0.0540709
threshold=1.0000000180025095e-35 1.0000000180025095e-35 1.0000000180025095e-35 1.0000000180025095e-35 -0.31518357092814192 1.0286412311660702 0.4780414223453891 -0.042995980632570048
decision_type=2 2 2 2 2 2 2 2
left_child=1 2 3 4 -1 -2 -4 -6
right_child=5 -3 6 -5 7 -7 -8 -9
leaf_value=-0.017371747315630306 0.047301994392280576 -0.051537503473757108 -0.035573035512648614 0.046918369261770669 0.022637056221708328 0.033615506887508591 -0.050459503777246825 0.013975832925180195
leaf_weight=4.9975017160177222 45.95550349354744 44.610459312796593 5.7307087332010251 7.7957439124584189 5.2394396513700467 5.116297334432601 5.7253704965114594 4.9817566126585042
leaf_count=20 190 181 23 32 21 21 23 20
internal_value=0.000169154 -0.0294494 -0.000710646 0.0206275 0.0067459 0.0460579 -0.0436447 0.0188826
internal_weight=130.153 79.081 34.4705 23.0144 15.2187 51.0718 11.4561 10.2212
internal_count=531 320 139 93 61 211 46 41
is_linear=0
shrinkage=0.03


Tree=7
num_leaves=8
num_cat=0
split_feature=7 8 6 9 4 3 11
split_gain=186.665 52.8637 33.416 8.73563 5.8183 0.326976 0.0267749
threshold=1.0000000180025095e-35 1.0000000180025095e-35 1.0000000180025095e-35 1.0000000180025095e-35 1.0000000180025095e-35 1.5000000000000002 -0.25833866322231641
decision_type=2 2 2 2 2 2 2
left_child=1 2 3 4 -1 -2 -4
right_child=5 -3 6 -5 -6 -7 -8
leaf_value=-0.0091385932531042186 0.048672683212583528 -0.050334147394493316 -0.048960226105606894 0.045895831826796241 0.028008517110975739 0.040903545748483316 -0.03634846781158322
leaf_weight=8.7381595373153704 26.132708624005318 44.313476786017418 4.9724387973546982 7.7335086464881888 6.4718159884214392 24.518006563186646 6.4545890539884549
leaf_count=35 109 181 20 32 26 102 26
internal_value=0.000166049 -0.0287151 -0.000689666 0.0200848 0.00655118 0.0450591 -0.0424738
internal_weight=129.335 78.684 34.3705 22.9435 15.21 50.6507 11.427
internal_count=531 320 139 93 61 211 46
is_linear=0
shrinkage=0.03


Tree=8
num_leaves=10
num_cat=0
split_feature=7 8 9 3 10 11 11 0 10
split_gain=177.109 50.2688 15.721 6.4521 3.52346 3.35838 3.00226 0.463146 0.731589
threshold=1.0000000180025095e-35 1.0000000180025095e-35 1.0000000180025095e-35 2.5000000000000004 -0.061472484284270643 -0.31518357092814192 -0.19012477397532648 1.0000000180025095e-35 -0.028214777711209497
decision_type=2 2 2 2 2 2 2 2 2
left_child=1 2 3 5 -4 -1 -7 -2 -9
right_child=7 -3 4 -5 -6 6 -8 8 -10
leaf_value=-0.023665317018756855 0.04684759811256034 -0.049213641641414889 0.04849887090450393 -0.04399056393453691 0.011556853487241852 0.018490111316345113 -0.0099786552015255145 0.043210896649611918 0.026491365677456184
leaf_weight=6.2220238149166134 34.029351577162743 43.970153465867043 5.0302628725767136 4.959236964583396 4.8793244808912259 5.9792487770319003 7.1840425878763199 10.693340182304384 5.470640540122985
leaf_count=25 143 181 21 20 20 24 29 45 23
internal_value=0.000162593 -0.0280238 -0.000672206 -0.0137229 0.0309061 -0.00563972 0.00276862 0.044118 0.0379344
internal_weight=128.418 78.2243 34.2541 24.3446 9.90959 19.3853 13.1633 50.1933 16.164
internal_count=531 320 139 98 41 78 53 211 68
is_linear=0
shrinkage=0.03


Tree=9
num_leaves=9
num_cat=0
split_feature=7 8 6 9 11 10 10 10
split_gain=168.129 47.9208 31.0797 7.88511 4.47511 0.462916 0.205014 0.0558905
threshold=1.0000000180025095e-35 1.0000000180025095e-35 1.0000000180025095e-35 1.0000000180025095e-35 -0.31518357092814192 1.0286412311660702 0.4780414223453891 -0.042995980632570048
decision_type=2 2 2 2 2 2 2 2
left_child=1 2 3 4 -1 -2 -4 -6
right_child=5 -3 6 -5 7 -7 -8 -9
leaf_value=-0.016115536196676335 0.044486638709027103 -0.048167655630576775 -0.033276433648759603 0.044242678215137929 0.021804172666112856 0.030781304550322582 -0.047617956234411188 0.013267140482202738
leaf_weight=4.9940440803766242 44.695145174860954 43.585187897086143 5.6975489705800992 7.6076189726591101 5.2320945262908918 5.0116331726312628 5.6718525588512421 4.9735928475856817
leaf_count=20 190 181 23 32 21 21 23 20
internal_value=0.000161763 -0.0273496 -0.000649978 0.0194473 0.00663284 0.0432296 -0.0410453 0.018104
internal_weight=127.469 77.7619 34.1768 22.8074 15.1997 49.7068 11.3694 10.2057
internal_count=531 320 139 93 61 211 46 41
is_linear=0
shrinkage=0.03


Tree=10
num_leaves=11
num_cat=0
split_feature=8 6 5 5 10 1 11 0 11 3
split_gain=163.607 48.074 4.82345 1.50292 2.1706 1.18119 1.12977 0.807444 0.518096 0.0966499
threshold=1.0000000180025095e-35 1.0000000180025095e-35 1.0000000180025095e-35 1.0000000180025095e-35 -0.042995980632570048 1.0000000180025095e-35 -0.28107662630464697 1.0000000180025095e-35 -0.20717824628707396 1.5000000000000002
decision_type=2 2 2 2 2 2 2 2 2 2
left_child=1 3 -3 9 7 -2 -6 -5 -9 -1
right_child=5 2 -4 4 6 -7 -8 8 -10 -11
leaf_value=0.0473509957826838 -0.029584373732113391 0.0007072146843759775 -0.035141528398178454 0.042337547129990369 0.032488140977458085 -0.046406431932030735 0.014321650450400259 0.020202236376574291 0.036875536693387063 0.035063375509634058
leaf_weight=15.375681072473528 6.1153638809919348 4.9329600781202307 9.5849282890558225 21.014330819249153 6.8727915585041046 40.288984104990959 7.6189142167568189 4.7557833343744278 5.6245930194854754 4.7077199518680564
leaf_count=65 25 20 39 90 29 169 32 20 24 20
internal_value=0.000461434 0.0263413 -0.0228339 0.0372268 0.0337536 -0.0443224 0.0233064 0.0383913 0.0297885 0.0448073
internal_weight=126.892 80.4877 14.5179 65.9698 45.8864 46.4043 14.4917 31.3947 10.3804 20.0834
internal_count=533 339 59 280 195 194 61 134 44 85
is_linear=0
shrinkage=0.03


Tree=11
num_leaves=8
num_cat=0
split_feature=7 8 6 5 4 10 10
split_gain=157.891 46.5977 26.5841 6.57506 3.52019 0.396697 0.183147
threshold=1.0000000180025095e-35 1.0000000180025095e-35 1.0000000180025095e-35 1.0000000180025095e-35 1.0000000180025095e-35 1.0286412311660702 0.16394086026647803
decision_type=2 2 2 2 2 2 2
left_child=1 2 3 -1 -5 -2 -4
right_child=5 -3 6 4 -6 -7 -8
leaf_value=0.040561715066149487 0.043253529442084424 -0.047094614293751551 -0.041369532604548009 -0.0077211905040206657 0.024230632604848812 0.030358089540384825 -0.028607906891753201
leaf_weight=8.6596022546291334 44.51329280436039 43.225595206022263 5.6490526646375638 6.8917663395404833 5.3748483657836914 5.1782376766204825 6.3696902394294739
leaf_count=36 193 183 23 28 22 22 26
internal_value=0.000457092 -0.0266465 0.00015309 0.0206399 0.00611924 0.0420336 -0.0351456
internal_weight=125.862 76.1706 32.945 20.9262 12.2666 49.6915 12.0187
internal_count=533 318 135 86 50 215 49
is_linear=0
shrinkage=0.03


Tree=12
num_leaves=8
num_cat=0
split_feature=7 8 6 5 4 10 10
split_gain=150.192 44.5489 25.1566 6.2637 3.32744 0.389185 0.171038
threshold=1.0000000180025095e-35 1.0000000180025095e-35 1.0000000180025095e-35 1.0000000180025095e-35 1.0000000180025095e-35 1.0286412311660702 0.16394086026647803
decision_type=2 2 2 2 2 2 2
left_child=1 2 3 -1 -5 -2 -4
right_child=5 -3 6 4 -6 -7 -8
leaf_value=0.039642391543211655 0.042473945846780263 -0.046221065169896755 -0.040379057298382974 -0.0074894073987586771 0.023595848135764212 0.029677426312463163 -0.027873876824783768
leaf_weight=8.5978599488735181 43.980295017361641 42.730612114071846 5.6169271767139417 6.8949468731880206 5.3568251729011536 5.1409531086683264 6.3443242758512497
leaf_count=36 193 183 23 28 22 22 26
internal_value=0.000447469 -0.02607 0.000142869 0.0201041 0.00594007 0.0412586 -0.0342811
internal_weight=124.663 75.5415 32.8109 20.8496 12.2518 49.1212 11.9613
internal_count=533 318 135 86 50 215 49
is_linear=0
shrinkage=0.03


Tree=13
num_leaves=8
num_cat=0
split_feature=7 8 6 5 4 0 10
split_gain=142.954 42.6348 23.8159 5.97279 3.14584 1.99798 0.383301
threshold=1.0000000180025095e-35 1.0000000180025095e-35 1.0000000180025095e-35 1.0000000180025095e-35 1.0000000180025095e-35 1.0000000180025095e-35 1.0286412311660702
decision_type=2 2 2 2 2 2 2
left_child=1 2 3 -1 -5 -4 -2
right_child=6 -3 5 4 -6 -7 -8
leaf_value=0.038766699280724896 0.041733995071395753 -0.045400176516272643 -0.018437499567901132 -0.0072648812828589636 0.022981957518721331 -0.044949422201482438 0.029019359571066102
leaf_weight=8.5315738171339017 43.42741234600544 42.207835987210274 5.3853555768728238 6.8978440612554568 5.3378778696060181 6.5131907314062119 5.1026581972837439
leaf_count=36 193 183 22 28 22 27 22
internal_value=0.00043824 -0.0255213 0.000132969 0.0195882 0.00576655 -0.0334537 0.0405212
internal_weight=123.404 74.8737 32.6658 20.7673 12.2357 11.8985 48.5301
internal_count=533 318 135 86 50 49 215
is_linear=0
shrinkage=0.03


Tree=14
num_leaves=8
num_cat=0
split_feature=7 8 6 4 0 11 10
split_gain=136.143 40.8404 22.5595 4.28438 1.91832 1.56778 0.378816
threshold=1.0000000180025095e-35 1.0000000180025095e-35 1.0000000180025095e-35 1.0000000180025095e-35 1.0000000180025095e-35 -0.016747805472558996 1.0286412311660702
decision_type=2 2 2 2 2 2 2
left_child=1 2 3 -1 -4 -5 -2
right_child=6 -3 4 5 -6 -7 -8
leaf_value=0.0032338270848525446 0.041030349087879107 -0.044627325294128439 -0.01794156857128822 0.043320110809632391 -0.044005156275132587 0.019322351739192611 0.028382358017831368
leaf_weight=9.0899589061737061 42.857348367571831 41.660622671246529 5.3711689561605436 5.4494082480669004 6.4563645273447037 6.1404807120561617 5.0635051876306525
leaf_count=37 193 183 22 23 27 26 22
internal_value=0.0004294 -0.0249992 0.000123447 0.0190906 -0.0326702 0.0311365 0.0398183
internal_weight=122.089 74.168 32.5074 20.6798 11.8275 11.5899 47.9209
internal_count=533 318 135 86 49 49 215
is_linear=0
shrinkage=0.03


Tree=15
num_leaves=11
num_cat=0
split_feature=7 5 6 4 6 0 6 10 10 0
split_gain=128.955 17.4092 11.8973 6.55801 4.60516 2.84188 3.1463 3.81749 0.436625 0.339462
threshold=1.0000000180025095e-35 1.0000000180025095e-35 1.0000000180025095e-35 1.0000000180025095e-35 1.0000000180025095e-35 1.0000000180025095e-35 1.0000000180025095e-35 -0.43100255731828446 1.0286412311660702 1.0000000180025095e-35
decision_type=2 2 2 2 2 2 2 2 2 2
left_child=1 2 -1 5 9 6 7 -3 -2 -5
right_child=8 3 -4 4 -6 -7 -8 -9 -10 -11
leaf_value=0.030685107472019694 0.041508164679909254 0 -0.027167988805057709 0.0017543136861529775 -0.039062207608545313 -0.044006768422911013 -0.045167285831944369 -0.034749021119236362 0.028558582585251222 -0.0083632303276304776
leaf_weight=7.7516497522592527 41.085530400276184 5.8097606748342523 5.2671227157115936 5.4183665663003904 4.5786216706037512 25.124606624245644 5.9000215679407111 5.5878662765026101 5.2520888447761527 5.5987476706504822
leaf_count=33 188 25 22 23 20 110 26 24 23 24
internal_value=0.00126027 -0.0240991 0.0070216 -0.0311341 -0.0140635 -0.0372914 -0.027168 -0.0172779 0.0401697 -0.00314641
internal_weight=117.374 71.0368 13.0188 58.018 15.5957 42.4223 17.2976 11.3976 46.3376 11.0171
internal_count=518 307 55 252 67 185 75 49 211 47
is_linear=0
shrinkage=0.03


Tree=16
num_leaves=14
num_cat=0
split_feature=8 6 1 5 0 9 10 1 11 10 10 10 10
split_gain=114.698 40.6702 4.0667 4.02777 2.80698 3.38095 1.65852 0.617756 0.303062 0.0249274 0.185053 0.0102838 0.324639
threshold=1.0000000180025095e-35 1.0000000180025095e-35 1.0000000180025095e-35 1.0000000180025095e-35 1.0000000180025095e-35 1.0000000180025095e-35 0.12698785296307655 1.0000000180025095e-35 -0.46298033096328794 -0.042995980632570048 0.6480252559410361 -0.83009503619501934 -1.0148600727120298
decision_type=2 2 2 2 2 2 2 2 2 2 2 2 2
left_child=1 4 -2 -3 8 6 7 -6 -1 11 -11 12 -10
right_child=2 3 -4 -5 5 -7 -8 -9 9 10 -12 -13 -14
leaf_value=0.026866466977808801 -0.013459244825790901 -0.0040397583896542837 -0.043208940806758189 -0.038145100336742947 0.032455266536600635 0.043205204393946393 0.0042897725292133709 0.015459389703505737 0.042503904142032763 0.02572074409118871 0.039394848821816944 0.044941623090798286 0.027006285370448448
leaf_weight=4.4659008979797354 5.1604530066251746 5.5514487028121948 35.219024494290352 7.7776849269866926 5.051212072372441 6.330525428056716 6.5104941129684439 5.2512285113334665 6.2008397579193115 4.4841663688421267 5.8073645085096359 13.831428095698357 4.5299510508775676
leaf_count=20 22 23 159 33 23 29 28 23 29 20 26 63 20
internal_value=0.00123093 0.0230066 -0.0395237 -0.0242998 0.0331721 0.0243122 0.0168077 0.0243126 0.0382359 0.0395259 0.0340304 0.0415595 0.0365484
internal_weight=116.172 75.7922 40.3795 13.3291 62.4631 23.1435 16.8129 10.3024 39.3197 34.8537 10.2915 24.5622 10.7308
internal_count=518 337 181 56 281 103 74 46 178 158 46 112 49
is_linear=0
shrinkage=0.03


Tree=17
num_leaves=8
num_cat=0
split_feature=7 8 6 9 0 0 10
split_gain=118.885 34.1423 22.8861 4.29852 2.3677 1.9336 0.434425
threshold=1.0000000180025095e-35 1.0000000180025095e-35 1.0000000180025095e-35 1.0000000180025095e-35 1.0000000180025095e-35 1.0000000180025095e-35 1.0286412311660702
decision_type=2 2 2 2 2 2 2
left_child=1 2 3 4 -1 -4 -2
right_child=6 -3 5 -5 -6 -7 -8
leaf_value=0.019837300612360588 0.040467473785701945 -0.042641201618786914 -0.019220497345590139 0.039194373025825277 -0.0036707383020451903 -0.046509512342887152 0.02754292394462721
leaf_weight=8.0859209746122378 39.989106088876724 37.645810917019844 4.831229165196417 6.0213490575551978 6.9004809856414786 6.2811654657125473 5.1671621501445761
leaf_count=33 188 172 20 27 28 27 23
internal_value=0.00121627 -0.0232943 -0.000464104 0.0178424 0.0088616 -0.0351901 0.039119
internal_weight=114.922 69.766 32.1201 21.0078 14.9864 11.1124 45.1563
internal_count=518 307 135 88 61 47 211
is_linear=0
shrinkage=0.03


Tree=18
num_leaves=10
num_cat=0
split_feature=7 8 6 4 11 11 10 11 11
split_gain=113.467 32.8083 21.7242 6.41885 2.28306 1.12261 0.435372 2.56954 0.372698
threshold=1.0000000180025095e-35 1.0000000180025095e-35 1.0000000180025095e-35 1.0000000180025095e-35 -0.25833866322231641 0.16231365380079102 0.27479988217668155 -0.28107662630464697 -0.25833866322231641
decision_type=2 2 2 2 2 2 2 2 2
left_child=1 2 3 4 -1 -5 -2 -8 -4
right_child=6 -3 8 5 -6 -7 7 -9 -10
leaf_value=-0.012832389089948727 0.040891089955098062 -0.042014072439814351 -0.04197831783875202 0.042649283301117585 0.015224539219073107 0.020371298752735082 0.043510602339182573 0.013845644340232997 -0.026646001102552781
leaf_weight=5.421834334731102 32.580245167016983 37.071685791015625 5.1938856244087219 6.0574910491704941 4.8427412509918213 4.5892550647258759 6.9099781066179276 5.0001671463251096 5.8238179385662097
leaf_count=22 156 172 22 26 20 20 32 23 25
internal_value=0.00119444 -0.0228547 -0.000454058 0.0173969 0.000134365 0.0336045 0.0385275 0.0315253 -0.0344563
internal_weight=113.491 69.0007 31.929 20.9113 10.2646 10.6467 44.4904 11.9101 11.0177
internal_count=518 307 135 88 42 46 211 55 47
is_linear=0
shrinkage=0.03


Tree=19
num_leaves=7
num_cat=0
split_feature=7 8 4 0 9 10
split_gain=108.342 31.5606 10.0347 4.76233 1.6258 0.443466
threshold=1.0000000180025095e-35 1.0000000180025095e-35 1.0000000180025095e-35 1.0000000180025095e-35 1.0000000180025095e-35 1.0286412311660702
decision_type=2 2 2 2 2 2
left_child=1 2 3 -1 -4 -2
right_child=5 -3 4 -5 -6 -7
leaf_value=0.00021530763774368919 0.039335255339166465 -0.041418815445436526 0.010494165989756266 -0.030152727791449195 0.033057541571972451 0.026349479833210388
leaf_weight=8.8972142934799194 38.74445652961731 36.486625194549561 8.8538445383310336 9.2031838148832321 4.7882332503795615 5.0742369294166556
leaf_count=37 188 172 37 39 22 23
internal_value=0.0011761 -0.0224267 -0.00044039 -0.0151414 0.0188149 0.0379632
internal_weight=112.048 68.2291 31.7425 18.1004 13.6421 43.8187
internal_count=518 307 135 76 59 211
is_linear=0
shrinkage=0.03


Tree=20
num_leaves=10
num_cat=0
split_feature=7 8 6 11 4 10 11 11 10
split_gain=110.916 29.3645 21.4105 6.14185 1.74183 1.02642 0.364769 1.90248 0.089514
threshold=1.0000000180025095e-35 1.0000000180025095e-35 1.0000000180025095e-35 -0.31518357092814192 1.0000000180025095e-35 0.41891661065994756 -0.28107662630464697 -0.21854722782823896 -0.12059729596971298
decision_type=2 2 2 2 2 2 2 2 2
left_child=1 2 3 -1 -5 -4 -2 -8 -9
right_child=6 -3 5 4 -6 -7 7 8 -10
leaf_value=-0.010425472754142854 0.040814441247181761 -0.041033773173087547 -0.024487968253258136 0.013389372303174532 0.03579369647305583 -0.046068619923201742 0.013404690784279765 0.039569359450354391 0.02822344087072998
leaf_weight=5.2948580086231258 21.287425339221954 39.055132985115051 5.3461946696043032 6.0685247629880879 8.4415816962718964 5.3043487668037415 4.2948669195175198 14.188598379492763 4.3917105793952915
leaf_count=22 104 187 23 25 37 23 21 70 21
internal_value=-0.000210477 -0.023846 -0.00164467 0.0166835 0.0267847 -0.0358435 0.0368932 0.0329518 0.0372136
internal_weight=113.673 69.5106 30.4555 19.805 14.5101 10.6505 44.1626 22.8752 18.5803
internal_count=533 317 130 84 62 46 216 112 91
is_linear=0
shrinkage=0.03


Tree=21
num_leaves=12
num_cat=0
split_feature=8 6 11 9 11 11 10 10 1 10 3
split_gain=96.7667 31.5996 3.03977 2.55696 2.52967 3.69563 1.80671 2.21039 1.57021 0.38678 1.06117
threshold=1.0000000180025095e-35 1.0000000180025095e-35 -0.30949908015755945 1.0000000180025095e-35 -0.21854722782823896 -0.29813009861639445 -0.85226684057705981 -0.37557304636318245 1.0000000180025095e-35 -0.75618902158821688 1.5000000000000002
decision_type=2 2 2 2 2 2 2 2 2 2 2
left_child=1 3 -3 4 5 6 -1 -8 -2 -6 -11
right_child=8 2 -4 -5 9 -7 7 -9 -10 10 -12
leaf_value=0.041797665177146531 -0.019923713527270331 -0.041132311036396633 -0.0099044732713154914 0.039959754876313348 0.041609667081925428 -0.0050528722313378594 0.001785395396469289 0.027745887337123416 -0.039254955468804933 0.039401824968113751 0.018637433172446729
leaf_weight=4.4115518480539349 5.3559328168630591 4.6443991512060165 7.9636193662881833 18.22114372253418 6.8847607076168087 4.5360034406185141 4.9192665964365032 8.466350436210627 35.68335910141468 5.3036787360906619 5.7544927150011063
leaf_count=22 24 20 35 90 34 21 22 40 174 24 27
internal_value=-0.000203409 0.0209331 -0.0218771 0.0302328 0.0256699 0.01849 0.0246528 0.0185117 -0.0368596 0.0342883 0.0291291
internal_weight=112.145 71.1053 12.608 58.4972 40.2761 22.3332 17.7972 13.3856 41.0393 17.9429 11.0582
internal_count=533 335 55 280 190 105 84 62 198 85 51
is_linear=0
shrinkage=0.03


Tree=22
num_leaves=15
num_cat=0
split_feature=8 6 0 11 11 3 3 10 10 10 10 10 0 10
split_gain=92.3624 30.1409 3.9711 3.91266 2.91641 1.4434 1.18914 0.54644 0.132557 0.613009 0.465202 0.390178 0.0868854 0.0439672
threshold=1.0000000180025095e-35 1.0000000180025095e-35 1.0000000180025095e-35 -0.23560070013998649 -0.30949908015755945 1.5000000000000002 1.5000000000000002 -0.71923601428481487 -0.42361195585760397 -1.0000788697906673 -0.76357962304889682 -0.60837699237461085 1.0000000180025095e-35 -0.93356345664454288
decision_type=2 2 2 2 2 2 2 2 2 2 2 2 2 2
left_child=1 2 8 5 -3 -4 -5 13 9 -1 -11 -12 -9 -2
right_child=7 4 3 6 -6 -7 -8 12 -10 10 11 -13 -14 -15
leaf_value=0.040486875828000576 -0.033727729268259267 -0.040327049106793272 0.016534999769801433 0.042427910803473308 -0.0096259970717430116 -0.0053400467062356552 0.019603877798791469 -0.034060343389615333 0.039163506644822058 0.016459916257368108 0.039863497424925953 0.022401881557748023 -0.042174396116103227 -0.023748492642639979
leaf_weight=7.0629049837589255 5.5726640969514847 4.5977287143468857 5.1788114756345767 5.2227682620286924 7.9512660801410657 5.2330050766468048 5.0157201737165451 11.939000740647318 17.726751282811165 4.2161445915698996 3.9452503174543363 4.2068731486797368 16.829026013612747 6.0962098687887174
leaf_count=36 27 20 24 25 35 24 24 58 87 20 20 20 83 30
internal_value=-0.000194547 0.0205362 0.0297 0.0186951 -0.0213414 0.00530894 0.0318346 -0.0363003 0.0356688 0.0321428 0.0268508 0.0315967 -0.0390406 -0.0290152
internal_weight=110.794 70.3572 57.8082 20.6503 12.549 10.4118 10.2385 40.4369 37.1579 19.4312 12.3683 8.15212 28.768 11.6689
internal_count=533 335 280 97 55 48 49 198 183 96 60 40 141 57
is_linear=0
shrinkage=0.03


Tree=23
num_leaves=10
num_cat=0
split_feature=7 8 11 0 0 10 10 10 11
split_gain=99.8846 25.6089 9.5588 7.05539 1.40337 1.41082 1.35432 0.703672 0.188265
threshold=1.0000000180025095e-35 1.0000000180025095e-35 -0.31518357092814192 1.0000000180025095e-35 1.0000000180025095e-35 -0.028214777711209497 0.12698785296307655 -0.17972210765515498 -0.13896435704008345
decision_type=2 2 2 2 2 2 2 2 2
left_child=1 2 6 8 -2 -6 -1 -5 -4
right_child=4 -3 3 7 5 -7 -8 -9 -10
leaf_value=-0.01396299452229985 0.039911790055025952 -0.039580336811445391 0.0323275205581951 -0.017185372978616231 0.03438585469427765 0.013053626726997048 -0.038309480384747546 -0.00033290825445139255 0.020264763774230442
leaf_weight=4.7486136257648486 28.496624618768692 37.18655751645565 4.6802925169467944 4.7354451864957809 8.7608883976936323 5.1523257493972769 4.8258246630430222 4.8450919538736343 6.0317077785730344
leaf_count=20 147 187 20 21 44 25 21 21 27
internal_value=-0.00018784 -0.0229947 -0.00218105 0.0093685 0.0357704 0.0268497 -0.0268136 -0.00906408 0.0260629
internal_weight=109.463 67.0535 29.867 20.2925 42.4098 13.9132 9.57444 9.58054 10.712
internal_count=533 317 130 89 216 69 41 42 47
is_linear=0
shrinkage=0.03


Tree=24
num_leaves=9
num_cat=0
split_feature=7 8 6 11 4 0 10 10
split_gain=95.4485 24.791 18.0397 5.38811 1.7111 1.39426 1.37308 0.906422
threshold=1.0000000180025095e-35 1.0000000180025095e-35 1.0000000180025095e-35 -0.31518357092814192 1.0000000180025095e-35 1.0000000180025095e-35 -0.028214777711209497 0.41891661065994756
decision_type=2 2 2 2 2 2 2 2
left_child=1 2 3 -1 -5 -2 -7 -4
right_child=5 -3 7 4 -6 6 -8 -9
leaf_value=-0.010503973917745739 0.039459808633689732 -0.039107935479257463 -0.023178785909560649 0.011270267009652115 0.033598998576200974 0.033880352047773454 0.012736508515524301 -0.043875473219883429
leaf_weight=5.2774611711502102 27.967495664954185 36.518007859587669 5.2603686749935168 5.9808481782674763 8.1461584120988846 8.6283596009016019 5.1250997036695471 5.1057626605033875
leaf_count=22 147 187 23 25 37 44 25 23
internal_value=-0.000183043 -0.0225731 -0.00212722 0.0148228 0.0245024 0.0352887 0.0263667 -0.0339812
internal_weight=108.01 66.2886 29.7706 19.4045 14.127 41.721 13.7535 10.3661
internal_count=533 317 130 84 62 216 69 46
is_linear=0
shrinkage=0.03


Tree=25
num_leaves=13
num_cat=0
split_feature=7 8 6 4 11 11 11 11 4 11 11 10
split_gain=87.8645 27.2922 13.6726 7.86254 2.47068 1.15767 1.08359 0.644742 0.212158 0.41513 1.64998 0.0735344
threshold=1.0000000180025095e-35 1.0000000180025095e-35 1.0000000180025095e-35 1.0000000180025095e-35 -0.22991620936940396 -0.016747805472558996 -0.25833866322231641 0.21063182535074251 1.0000000180025095e-35 -0.23560070013998649 -0.35497500632221995 -0.80792323181297843
decision_type=2 2 2 2 2 2 2 2 2 2 2 2
left_child=1 2 3 4 -1 -5 -4 8 9 10 -2 -3
right_child=7 11 6 5 -6 -7 -8 -9 -10 -11 -12 -13
leaf_value=-0.01711668613584863 0.036546611041047061 -0.031656337837977021 -0.037862662907302759 0.043580541689089682 0.011602185372740451 0.020698408434566693 -0.017349915184461384 0.020702513194409689 0.040825275995900787 0.039156812442809726 0.014412484279768234 -0.040272865478550079
leaf_weight=5.8624778240919113 9.0327314287424052 7.4759640991687766 5.0838273912668228 4.9896847009658796 4.728482112288475 5.0548190772533435 6.3263873606920225 4.3444817364215842 12.720715969800947 9.4675751924514788 5.6752902269363412 29.1210006326437
leaf_count=24 48 39 23 23 20 23 28 22 66 51 29 152
internal_value=-0.000208004 -0.0210196 -0.000693715 0.0137673 -0.00402554 0.0326786 -0.0269996 0.034326 0.0357887 0.0328578 0.0283635 -0.0386855
internal_weight=109.883 68.6426 32.0457 20.6355 10.591 10.0445 11.4102 41.2408 36.8963 24.1756 14.708 36.597
internal_count=548 332 141 90 44 46 51 216 194 128 77 191
is_linear=0
shrinkage=0.03


Tree=26
num_leaves=13
num_cat=0
split_feature=7 8 6 4 10 11 11 11 4 11 11 10
split_gain=84.0429 26.3758 12.9909 7.51257 2.36551 1.12869 1.05069 0.639118 0.207553 0.417556 1.61697 0.076785
threshold=1.0000000180025095e-35 1.0000000180025095e-35 1.0000000180025095e-35 1.0000000180025095e-35 -0.46426026389134545 -0.016747805472558996 -0.25833866322231641 0.21063182535074251 1.0000000180025095e-35 -0.23560070013998649 -0.35497500632221995 -0.80792323181297843
decision_type=2 2 2 2 2 2 2 2 2 2 2 2
left_child=1 2 3 4 -1 -5 -4 8 9 10 -2 -3
right_child=7 11 6 5 -6 -7 -8 -9 -10 -11 -12 -13
leaf_value=0.0093982404039942239 0.036107013187274307 -0.031197988870238249 -0.037224406695790149 0.042944453917296531 -0.018568844655305117 0.02022717731034784 -0.016924937991008204 0.020273215167120977 0.040376806142082416 0.038767697909778402 0.014078759248487144 -0.039855433699460159
leaf_weight=5.4623932093381882 8.8720754235982859 7.3614338040351859 5.0185700654983521 4.9143049567937869 5.1209109127521515 5.0202617496252042 6.2936945557594317 4.3060892969369879 12.480886131525038 9.2795722782611865 5.6384590864181527 28.552865505218506
leaf_count=23 48 39 23 23 21 23 28 22 66 51 29 152
internal_value=-0.000199186 -0.0206689 -0.000673757 0.0134464 -0.00390044 0.0320796 -0.0264407 0.0338685 0.0353399 0.0324138 0.0279076 -0.0382558
internal_weight=108.322 67.7444 31.8301 20.5179 10.5833 9.93457 11.3123 40.5771 36.271 23.7901 14.5105 35.9143
internal_count=548 332 141 90 44 46 51 216 194 128 77 191
is_linear=0
shrinkage=0.03


Tree=27
num_leaves=11
num_cat=0
split_feature=7 8 6 9 11 0 11 0 11 10
split_gain=80.4043 25.5044 12.3436 6.34202 1.94651 1.8628 0.634256 0.148275 0.936739 0.0806295
threshold=1.0000000180025095e-35 1.0000000180025095e-35 1.0000000180025095e-35 1.0000000180025095e-35 -0.19580926474590896 1.0000000180025095e-35 0.21063182535074251 1.0000000180025095e-35 -0.23560070013998649 -0.80792323181297843
decision_type=2 2 2 2 2 2 2 2 2 2
left_child=1 2 3 4 -1 -4 7 -2 -9 -3
right_child=6 9 5 -5 -6 -7 -8 8 -10 -11
leaf_value=-0.0080593371960037668 0.03716357252196411 -0.030750879637952113 -0.011636575948424901 0.04065731440525068 0.013331409803397863 -0.037472252593562856 0.019852364107508146 0.019127026620329404 0.038808005518722273 -0.039458130480298753
leaf_weight=7.2719022631645229 24.455417945981026 7.2475970089435569 5.2295107096433657 5.4215123653411856 7.7128124833106986 5.9838734269142151 4.2681530863046637 5.6346421539783478 5.5570257455110532 27.984754309058189
leaf_count=30 135 39 23 27 33 28 22 29 30 152
internal_value=-0.000190591 -0.0203262 -0.000654506 0.0131293 0.00276725 -0.025898 0.033425 0.0349061 0.0294221 -0.037844
internal_weight=106.767 66.852 31.6196 20.4062 14.9847 11.2134 39.9152 35.6471 11.1917 35.2324
internal_count=548 332 141 90 63 51 216 194 59 191
is_linear=0
shrinkage=0.03


Tree=28
num_leaves=12
num_cat=0
split_feature=7 8 6 4 11 0 11 11 4 0 11
split_gain=76.9369 24.6641 11.7302 7.1111 2.2192 1.8076 1.14307 0.629653 0.214887 0.521029 0.092465
threshold=1.0000000180025095e-35 1.0000000180025095e-35 1.0000000180025095e-35 1.0000000180025095e-35 -0.22991620936940396 1.0000000180025095e-35 -0.016747805472558996 0.21063182535074251 1.0000000180025095e-35 1.0000000180025095e-35 -0.042328013940180445
decision_type=2 2 2 2 2 2 2 2 2 2 2
left_child=1 2 3 4 -1 -4 -5 8 9 -2 -3
right_child=7 10 5 6 -6 -7 -8 -9 -10 -11 -12
leaf_value=-0.016410566727949966 0.035092321686781891 -0.039065641514714096 -0.011331863452268911 0.042226223951831551 0.010852906100024628 -0.036894162165472998 0.019268027225876599 0.019439667098452486 0.03959192704989508 0.022762955324470997 -0.030153906209879938
leaf_weight=5.8537664115428925 15.877085790038111 27.591078147292137 5.2119861990213412 4.7999245375394839 4.6952335238456726 5.8981716334819794 4.9402127116918546 4.230697587132453 12.028413459658621 7.1178429573774329 6.9611639082431784
leaf_count=24 90 153 23 23 20 28 23 22 66 38 38
internal_value=-0.000184974 -0.0199969 -0.000639202 0.0128185 -0.00400624 -0.0253781 0.0312008 0.0329915 0.034483 0.0315209 -0.037449
internal_weight=105.206 65.9515 31.3993 20.2891 10.549 11.1102 9.74014 39.254 35.0233 22.9949 34.5522
internal_count=548 332 141 90 44 51 46 216 194 128 191
is_linear=0
shrinkage=0.03


Tree=29
num_leaves=12
num_cat=0
split_feature=7 8 6 4 10 0 11 11 4 0 10
split_gain=73.6262 23.8647 11.1532 6.79875 2.16849 1.7554 1.11798 0.625214 0.213913 0.519777 0.100421
threshold=1.0000000180025095e-35 1.0000000180025095e-35 1.0000000180025095e-35 1.0000000180025095e-35 -0.46426026389134545 1.0000000180025095e-35 -0.016747805472558996 0.21063182535074251 1.0000000180025095e-35 1.0000000180025095e-35 -0.80792323181297843
decision_type=2 2 2 2 2 2 2 2 2 2 2
left_child=1 2 3 4 -1 -4 -5 8 9 -2 -3
right_child=7 10 5 6 -6 -7 -8 -9 -10 -11 -12
leaf_value=0.0088968930202801121 0.034701415756800323 -0.029797367603720721 -0.011034822556088633 0.041661035897402901 -0.017919192257605375 -0.036337966834414037 0.018830087107372814 0.019034848463378062 0.039200425132818038 0.022340093082540251 -0.038734813691219588
leaf_weight=5.4246085286140442 15.579892396926882 6.9985278844833365 5.1946741640567797 4.7216322124004382 5.1155726313591003 5.8116398602724075 4.9063010364770872 4.1937446594238272 11.788712739944456 7.038105607032775 26.876326635479927
leaf_count=23 90 39 23 23 21 28 23 22 66 38 152
internal_value=-0.000178248 -0.0196755 -0.000620522 0.0125239 -0.00388217 -0.0248726 0.0306482 0.0325669 0.0340694 0.0311022 -0.0370698
internal_weight=103.65 65.0493 31.1744 20.1681 10.5402 11.0063 9.62793 38.6005 34.4067 22.618 33.8749
internal_count=548 332 141 90 44 51 46 216 194 128 191
is_linear=0
shrinkage=0.03


Tree=30
num_leaves=12
num_cat=0
split_feature=7 5 6 8 6 10 10 10 10 10 10
split_gain=78.8512 17.2159 6.39632 3.8498 3.95566 1.94625 0.990418 0.286238 1.10273 0.124952 0.0106355
threshold=1.0000000180025095e-35 1.0000000180025095e-35 1.0000000180025095e-35 1.0000000180025095e-35 1.0000000180025095e-35 -0.042995980632570048 1.0286412311660702 -0.71184541282413483 -0.91139165226250196 -0.028214777711209497 -0.12798789743039299
decision_type=2 2 2 2 2 2 2 2 2 2 2
left_child=1 2 10 4 5 -3 9 8 -5 -2 -1
right_child=6 3 -4 7 -6 -7 -8 -9 -10 -11 -12
leaf_value=0.017864719157431947 0.037364272888467318 0.0036941026618917223 -0.0188878069586805 -0.03766124313688457 -0.034475925989137846 -0.021015348518758453 0.017001125673140993 -0.038269942014280162 -0.01464097537123563 0.02914601299592378 0.027100520403654807
leaf_weight=4.4516508728265753 24.999509364366531 6.7189180701971063 4.8606499731540671 5.6271442472934723 7.7238174825906745 4.6875678747892389 3.885049730539321 21.890612706542015 3.8829809725284594 8.9340225309133512 4.7007161080837241
leaf_count=21 146 29 23 32 37 20 20 127 22 50 23
internal_value=-0.000694307 -0.0208685 0.00834124 -0.0290285 -0.0179485 -0.00629407 0.0336215 -0.0356051 -0.0288244 0.0353807 0.0231742
internal_weight=102.363 64.5441 14.013 50.531 19.1303 11.4065 37.8186 31.4007 9.51013 33.9335 9.15237
internal_count=550 334 67 267 86 49 216 181 54 196 44
is_linear=0
shrinkage=0.03


Tree=31
num_leaves=12
num_cat=0
split_feature=7 5 6 8 6 0 0 10 10 10 10
split_gain=75.4811 16.4949 6.07661 3.84923 3.82609 2.15534 1.09781 1.60218 0.290168 1.08655 0.00872112
threshold=1.0000000180025095e-35 1.0000000180025095e-35 1.0000000180025095e-35 1.0000000180025095e-35 1.0000000180025095e-35 1.0000000180025095e-35 1.0000000180025095e-35 -0.028214777711209497 -0.71184541282413483 -0.91139165226250196 -0.12798789743039299
decision_type=2 2 2 2 2 2 2 2 2 2 2
left_child=1 2 10 4 5 -3 -2 -8 9 -5 -1
right_child=6 3 -4 8 -6 -7 7 -9 -10 -11 -12
leaf_value=0.017443762384816069 0.037163432543762129 0.0054966025041757651 -0.01845747894289063 -0.037314949599888673 -0.033924543813782883 -0.020213239720191945 0.034054202478461214 0.010620576540156967 -0.037943143297430988 -0.014325022871692529 0.026551511641544897
leaf_weight=4.4251263439655295 25.042691454291344 6.1844280511140841 4.8275924623012534 5.511660248041153 7.6171195805072776 5.2306968569755554 7.0020191073417664 5.0953091382980329 21.424687072634697 3.8522421419620532 4.6567153185605994
leaf_count=21 149 27 23 32 37 22 40 27 127 22 23
internal_value=-0.000683713 -0.0205146 0.00815752 -0.02858 -0.0175101 -0.00609699 0.0332282 0.0245981 -0.035247 -0.0284254 0.0226788
internal_weight=100.87 63.7303 13.9094 49.8208 19.0322 11.4151 37.14 12.0973 30.7886 9.3639 9.08184
internal_count=550 334 67 267 86 49 216 67 181 54 44
is_linear=0
shrinkage=0.03


Tree=32
num_leaves=15
num_cat=0
split_feature=3 6 9 0 5 1 1 11 11 10 10 0 10 11
split_gain=30.3908 24.9486 8.80013 9.22357 5.98892 4.58232 2.13198 1.13993 0.946823 0.785347 0.251436 0.210187 0.179046 0.169168
threshold=2.5000000000000004 1.0000000180025095e-35 1.0000000180025095e-35 1.0000000180025095e-35 1.0000000180025095e-35 1.0000000180025095e-35 1.0000000180025095e-35 -0.082119449334258132 -0.26402315399289944 -1.0000000180025095e-35 -0.80792323181297843 1.0000000180025095e-35 -0.41622135439692393 -0.41750440479862794
decision_type=2 2 2 2 2 2 2 2 2 2 2 2 2 2
left_child=1 2 3 6 -3 -5 12 -2 13 10 -7 -6 -1 -8
right_child=7 4 -4 5 11 9 8 -9 -10 -11 -12 -13 -14 -15
leaf_value=0.036968194334310138 -0.040553715867999912 0.0055731393931682622 0.03561408705367658 0.015579440021508826 -0.025525318330286546 -0.014482820387282 0.011030300462515248 -0.020564869209957783 0.021713376417329542 -0.023852111114237646 -0.002923336524753916 -0.037254009344597036 0.02304090201743449 0.0014941535247798383
leaf_weight=6.3454134613275528 13.506264358758928 4.7891781330108651 15.845853626728056 6.2261289507150659 6.1885724812746039 3.662943571805954 3.9687907397747049 4.4735562503337851 7.9217514395713797 5.6978322565555564 4.7186709493398666 8.0396417230367661 3.622709661722185 4.3687325417995462
leaf_count=39 76 23 93 33 33 20 22 24 43 31 25 45 20 23
internal_value=-0.000673304 0.00710292 0.0162994 0.00959554 -0.0228328 -0.00545526 0.0213385 -0.0358875 0.0141654 -0.0150129 -0.00843998 -0.0325757 0.0324837 0.00646599
internal_weight=99.376 81.3962 62.3788 46.533 19.0174 20.3056 26.2274 17.9798 16.2593 14.0794 8.38161 14.2282 9.96812 8.33752
internal_count=550 450 349 256 101 109 147 100 88 76 45 78 59 45
is_linear=0
shrinkage=0.03


Tree=33
num_leaves=15
num_cat=0
split_feature=3 6 9 0 5 1 1 11 11 10 10 0 10 10
split_gain=29.0961 23.7455 8.55744 8.7888 5.77063 4.33233 2.09814 1.13784 0.900239 0.738042 0.236201 0.215442 0.190199 0.163816
threshold=2.5000000000000004 1.0000000180025095e-35 1.0000000180025095e-35 1.0000000180025095e-35 1.0000000180025095e-35 1.0000000180025095e-35 1.0000000180025095e-35 -0.082119449334258132 -0.26402315399289944 1.0000000180025095e-35 -0.80792323181297843 1.0000000180025095e-35 -0.41622135439692393 -0.20558921276753647
decision_type=2 2 2 2 2 2 2 2 2 2 2 2 2 2
left_child=1 2 3 6 -3 -5 12 -2 13 10 -7 -6 -1 -8
right_child=7 4 -4 5 11 9 8 -9 -10 -11 -12 -13 -14 -15
leaf_value=0.03666357726141084 -0.040154497960552996 0.0054056235741048028 0.035237461048687899 0.015201263236479797 -0.025026914449644111 -0.014081674379307777 0.011115932068649182 -0.020115879731446996 0.021205438890097697 -0.023190258353664988 -0.0028378699032309655 -0.036820038719237239 0.022566405266603647 0.0016763821002518204
leaf_weight=6.20908322930336 13.236405909061434 4.7925108522176751 15.540458798408507 6.1925946921110162 6.1254177689552307 3.6572084128856659 3.6874305456876764 4.4389661997556678 7.8713259398937216 5.6876456439495096 4.7179794907569867 7.893757626414299 3.5905120521783846 4.6414058804512033
leaf_count=39 76 23 93 33 33 20 20 24 43 31 25 45 20 25
internal_value=-0.000659066 0.0069632 0.0159731 0.00937409 -0.0224034 -0.0053127 0.0209075 -0.0354323 0.0138087 -0.0146014 -0.00820992 -0.0320935 0.0320816 0.00629378
internal_weight=98.2827 80.6073 61.7956 46.2552 18.8117 20.2554 25.9998 17.6754 16.2002 14.0628 8.37519 14.0192 9.7996 8.32884
internal_count=550 450 349 256 101 109 147 100 88 76 45 78 59 45
is_linear=0
shrinkage=0.03


Tree=34
num_leaves=13
num_cat=0
split_feature=7 5 11 9 6 11 10 10 10 11 11 10
split_gain=68.8513 14.8545 7.50897 3.56788 1.26022 1.61835 0.988754 0.323161 0.899079 0.254621 0.155669 0.106771
threshold=1.0000000180025095e-35 1.0000000180025095e-35 -0.32086806169872445 1.0000000180025095e-35 1.0000000180025095e-35 -0.087803940104840633 1.0286412311660702 -0.43100255731828446 -0.84487623911637988 0.21063182535074251 -0.082119449334258132 0.23045627341260003
decision_type=2 2 2 2 2 2 2 2 2 2 2 2
left_child=1 2 -1 4 5 7 9 8 -3 -2 -4 -9
right_child=6 3 10 -5 -6 -7 -8 11 -10 -11 -12 -13
leaf_value=-0.022002561156054399 0.035628828089234454 -0.034138936091403782 0.029109681822113032 -0.004635791665383155 -0.038466815648894648 -0.013462237840368714 0.015730251718794514 -0.04128447776027265 -0.011893729566079378 0.022842383613064159 0.016794942440052613 -0.02941455692502546
leaf_weight=4.803127020597457 28.120700672268871 4.1337790638208389 4.7946768403053275 5.6654631942510596 14.693465158343313 7.4862140864133861 3.7646533697843543 5.0908799916505814 3.827504739165307 3.7298909127712241 4.0216188728809348 7.0689496845006943
leaf_count=23 175 23 23 31 86 39 20 28 21 21 21 39
internal_value=-0.000645074 -0.0198671 0.00756763 -0.0277187 -0.0307213 -0.0263667 0.032472 -0.0309292 -0.0240966 0.0343015 0.02408 -0.034925
internal_weight=97.2009 61.5857 13.6194 47.9663 42.3008 27.6073 35.6152 20.1211 7.96128 31.8506 8.8163 12.1598
internal_count=550 334 67 267 236 150 216 111 44 196 44 67
is_linear=0
shrinkage=0.03


Tree=35
num_leaves=12
num_cat=0
split_feature=7 8 11 5 4 3 10 10 10 10 10
split_gain=61.5933 17.4551 6.83143 8.09887 4.57723 0.446203 0.580325 0.327926 0.97467 0.00635686 0.109785
threshold=1.0000000180025095e-35 1.0000000180025095e-35 -0.32086806169872445 1.0000000180025095e-35 1.0000000180025095e-35 1.5000000000000002 0.16394086026647803 -0.71923601428481487 -0.9040010508018218 -0.44947906096998497 -0.83009503619501934
decision_type=2 2 2 2 2 2 2 2 2 2 2
left_child=1 2 -1 -4 -5 -2 9 8 -3 10 -7
right_child=5 7 3 4 -6 6 -8 -9 -10 -11 -12
leaf_value=-0.023311884680530366 0.037006593266645127 -0.036337802437801575 0.034548951163277927 -0.02095056213263646 0.013997639789874452 0.031325759549049578 0.014924849599061291 -0.037147403168035054 -0.014330396383928308 0.036769491794674744 0.018786793971061703
leaf_weight=9.033842474222185 16.248473837971687 5.1552682965993881 6.7384717464447048 7.5198862850666028 5.8728234469890594 5.4981782585382462 3.6669256389141074 20.934323683381081 3.9798972755670565 4.7336393892765054 3.3006333261728287
leaf_count=41 104 32 34 35 27 35 20 132 24 29 20
internal_value=0 -0.018362 -0.00169829 0.00791978 -0.00541296 0.0324971 0.0278742 -0.0343659 -0.0273337 0.0310278 0.0272232
internal_weight=92.6824 59.2345 29.165 20.1312 13.3927 33.4479 17.1994 30.0695 9.13517 13.5325 8.79881
internal_count=533 325 137 96 62 208 104 188 56 84 55
is_linear=0
shrinkage=0.03


Tree=36
num_leaves=11
num_cat=0
split_feature=7 11 5 11 6 10 0 10 10 11
split_gain=59.043 9.64142 5.81055 9.61725 2.43562 2.03749 0.995177 0.837769 0.305698 0.194027
threshold=1.0000000180025095e-35 1.2565781271379304 1.0000000180025095e-35 -0.32086806169872445 1.0000000180025095e-35 0.067863041277634165 1.0000000180025095e-35 -0.62315819529597183 0.65911115813205612 -0.05369699548134544
decision_type=2 2 2 2 2 2 2 2 2 2
left_child=1 2 3 -1 5 6 7 -4 -2 -8
right_child=8 -3 4 -5 -6 -7 9 -9 -10 -11
leaf_value=-0.034094936900178667 0.033993013095365961 0.028783127555518154 0.0022641857820479955 0.024806663585923795 -0.035917765559990406 -0.031377008391655317 -0.024915824130562429 -0.015210196778362495 0.023439978916169689 -0.013082307439230374
leaf_weight=4.2711317539215088 26.583661779761314 3.5715744048357001 4.4310476630926132 5.7088713198900205 15.137089923024176 10.432153552770613 6.27415560185909 4.7929508090019262 6.2370277643203726 3.8418629914522198
leaf_count=20 171 19 23 29 92 59 36 26 37 21
internal_value=0 -0.0180591 -0.0212084 -0.000191939 -0.0258013 -0.0204544 -0.0142772 -0.0065598 0.032156 -0.0208874
internal_weight=91.2815 58.4608 54.8893 9.98 44.9093 29.7722 19.34 9.224 32.8207 10.116
internal_count=533 325 306 49 257 165 106 49 208 57
is_linear=0
shrinkage=0.03


Tree=37
num_leaves=14
num_cat=0
split_feature=7 8 6 11 0 4 11 3 10 10 10 10 10
split_gain=56.5137 16.9184 8.3809 4.06191 2.12691 1.33515 0.906063 0.484555 0.591888 0.337721 0.980908 0.0207615 0.124007
threshold=1.0000000180025095e-35 1.0000000180025095e-35 1.0000000180025095e-35 -0.32086806169872445 1.0000000180025095e-35 1.0000000180025095e-35 0.16231365380079102 1.5000000000000002 0.16394086026647803 -0.71923601428481487 -0.9040010508018218 -0.44947906096998497 -0.83009503619501934
decision_type=2 2 2 2 2 2 2 2 2 2 2 2 2
left_child=1 2 3 -1 -4 -5 -7 -2 11 10 -3 12 -9
right_child=7 9 4 5 -6 6 -8 8 -10 -11 -12 -13 -14
leaf_value=-0.01317852302207244 0.036510967755440923 -0.035895639584964174 -0.008393169235221213 0.0056506677145573246 -0.038690062102959201 0.03445359170490301 0.013148770395831344 0.030596522442578506 0.013960644474557563 -0.036691085770468257 -0.013621134970774291 0.036175063695879882 0.017788851334776097
leaf_weight=5.0354015976190594 15.579737678170202 4.982958972454071 4.2580841183662432 5.855527296662328 4.8347856402397156 4.6704237759113312 4.1835041046142578 5.2862659990787506 3.5888457894325247 20.143175095319748 3.9015549421310443 4.540936991572381 3.2020055055618286
leaf_count=21 104 32 20 25 26 24 21 35 20 132 24 29 20
internal_value=0 -0.0177098 -0.00130793 0.00955697 -0.0250744 0.0175789 0.0249813 0.0318104 0.0270321 -0.0338409 -0.0267084 0.0302704 0.0263778
internal_weight=90.0632 57.8654 28.8377 19.7449 9.09287 14.7095 8.85393 32.1978 16.6181 29.0277 8.88451 13.0292 8.48827
internal_count=533 325 137 91 46 70 45 208 104 188 56 84 55
is_linear=0
shrinkage=0.03


Tree=38
num_leaves=16
num_cat=0
split_feature=7 11 5 11 9 10 11 10 3 3 10 11 11 10 10
split_gain=54.2053 9.09047 5.43072 8.93111 1.60165 0.97962 1.0818 0.921278 1.03062 0.4919 0.585647 0.201804 0.81671 0.0235035 0.123638
threshold=1.0000000180025095e-35 1.2565781271379304 1.0000000180025095e-35 -0.32086806169872445 1.0000000180025095e-35 -0.66750180406005288 -1.0000000180025095e-35 -1.0074694712513497 2.5000000000000004 1.5000000000000002 0.16394086026647803 -0.29813009861639445 -0.36065949709280248 -0.44947906096998497 -0.83009503619501934
decision_type=2 2 2 2 2 2 2 2 2 2 2 2 2 2 2
left_child=1 2 3 -1 5 7 11 -4 -9 -2 13 12 -7 14 -11
right_child=9 -3 4 -5 -6 6 -8 8 -10 10 -12 -13 -14 -15 -16
leaf_value=-0.032934399230456213 0.036256432617136757 0.028297009003542675 -0.031254599066118827 0.024199180620144846 -0.0076860072509022615 -0.035387629475567464 -0.01710825855378361 -0.0038317100611094538 -0.024822431596477477 0.030258620125392027 0.013647501817932398 -0.040053075695563045 -0.015361410645684123 0.035883650647467499 0.017449533104300193
leaf_weight=4.2237468063831329 15.224513515830042 3.5274621695280066 4.6095262616872779 5.6176306456327421 4.8261745125055304 8.1670160740613902 5.2278119474649527 5.1949600875377602 4.048520490527153 5.1875545829534531 3.5637358874082556 8.1458876729011518 3.4715168476104745 4.4427770674228677 3.1687949746847153
leaf_count=20 104 19 28 29 28 50 28 28 24 35 20 51 20 29 20
internal_value=0 -0.0174343 -0.0205508 -0.000104415 -0.025077 -0.0271343 -0.0309744 -0.0198136 -0.0135137 0.0314844 0.0266688 -0.034383 -0.0298516 0.029928 0.0260199
internal_weight=88.6476 57.0603 53.5328 9.84138 43.6914 38.8652 25.0122 13.853 9.24348 31.5874 16.3629 19.7844 11.6385 12.7991 8.35635
internal_count=533 325 306 49 257 229 149 80 52 208 104 121 70 84 55
is_linear=0
shrinkage=0.03


Tree=39
num_leaves=14
num_cat=0
split_feature=7 11 5 11 6 3 10 0 11 3 10 10 10
split_gain=51.9444 8.65283 5.20688 8.46627 2.45968 2.58719 3.44451 1.34317 1.05468 0.499544 0.664538 0.034308 0.123298
threshold=1.0000000180025095e-35 1.2565781271379304 1.0000000180025095e-35 -0.32086806169872445 1.0000000180025095e-35 2.5000000000000004 -0.042995980632570048 1.0000000180025095e-35 -0.099172921646005732 1.5000000000000002 0.17502676245749801 -0.44947906096998497 -0.83009503619501934
decision_type=2 2 2 2 2 2 2 2 2 2 2 2 2
left_child=1 2 3 -1 5 6 7 -4 -7 -2 11 12 -11
right_child=9 -3 4 -5 -6 8 -8 -9 -10 10 -12 -13 -14
leaf_value=-0.032170810191506007 0.036011899838269162 0.027569679475696725 0.007836294206598626 0.02362284805788932 -0.035095077413079261 -0.037786271925852183 -0.028339934044333676 -0.012709479816682861 -0.014636075807774788 0.029926372461669164 0.012351590982768166 0.035635526396759577 0.017115079029206278
leaf_weight=4.1970593929290771 14.874034285545351 3.5147391408681861 6.0657507777214033 5.5849845260381681 14.337059348821638 7.3363864123821259 7.0499583482742336 5.1747091263532639 3.2210522294044512 5.0903785079717636 3.3909210413694373 4.4939926117658624 3.1362485140562057
leaf_count=20 104 19 31 29 92 47 39 29 19 35 19 30 20
internal_value=0 -0.0171064 -0.0201739 -9.55629e-05 -0.0246419 -0.0192398 -0.0120362 -0.00138638 -0.0312083 0.0311652 0.0263112 0.0296731 0.0256668
internal_weight=87.4673 56.4817 52.967 9.78204 43.1849 28.8479 18.2904 11.2405 10.5574 30.9856 16.1115 12.7206 8.22663
internal_count=533 325 306 49 257 165 99 60 66 208 104 85 55
is_linear=0
shrinkage=0.03


Tree=40
num_leaves=14
num_cat=0
split_feature=7 4 6 5 3 5 0 0 9 11 11 1 11
split_gain=41.894 10.0283 3.87381 3.94105 3.35195 2.88004 1.97766 1.44748 1.2106 0.884963 0.84793 0.798751 0.690858
threshold=1.0000000180025095e-35 1.0000000180025095e-35 1.0000000180025095e-35 1.0000000180025095e-35 2.5000000000000004 1.0000000180025095e-35 1.0000000180025095e-35 1.0000000180025095e-35 1.0000000180025095e-35 -0.28960336246052049 -0.26970764476348191 1.0000000180025095e-35 -0.030959032399015245
decision_type=2 2 2 2 2 2 2 2 2 2 2 2 2
left_child=1 4 3 -3 5 -1 10 -2 11 -8 -7 -9 -5
right_child=7 2 -4 12 -6 6 9 8 -10 -11 -12 -13 -14
leaf_value=0.0052537690066889308 0.034656134363992591 0.032521323197171159 -0.018507704144368125 -0.008958597429815477 -0.036515009804416972 -0.019468596339852314 -0.016920646725576593 0.022181697154906699 0.034953732147221341 -0.038156256935213337 -0.00062134709191069874 0.0027055352842240373 0.0073254127171376061
leaf_weight=4.0585409998893764 17.917415663599968 4.8158998936414728 5.5482235997915259 4.5524337589740753 13.149506762623785 5.0082084983587265 3.6233621835708627 4.1321931332349768 3.5581990480422965 6.5517752617597571 4.3111703246831894 4.2139258384704616 4.5691932886838913
leaf_count=19 126 27 31 26 85 28 22 26 24 41 23 25 23
internal_value=0.000252397 -0.0149604 0.00229046 0.0108563 -0.0241819 -0.0170444 -0.0218428 0.0289699 0.0199442 -0.0311245 -0.0111675 0.0128519 -0.000485328
internal_weight=86.01 56.1883 19.4858 13.9375 36.7026 23.5531 19.4945 29.8217 11.9043 10.1751 9.31938 8.34612 9.12163
internal_count=526 325 107 76 218 133 114 201 75 63 51 51 49
is_linear=0
shrinkage=0.03


Tree=41
num_leaves=14
num_cat=0
split_feature=7 4 6 5 3 5 10 0 0 9 10 11 6
split_gain=40.1202 9.60398 3.67965 3.7927 3.3013 2.76218 2.92102 3.12954 1.44121 1.19178 1.70024 0.652138 0.0784275
threshold=1.0000000180025095e-35 1.0000000180025095e-35 1.0000000180025095e-35 1.0000000180025095e-35 2.5000000000000004 1.0000000180025095e-35 -1.0000000180025095e-35 1.0000000180025095e-35 1.0000000180025095e-35 1.0000000180025095e-35 -0.12798789743039299 -0.030959032399015245 1.0000000180025095e-35
decision_type=2 2 2 2 2 2 2 2 2 2 2 2 2
left_child=1 4 3 -3 5 -1 7 -7 -2 10 -10 -5 -8
right_child=8 2 -4 11 -6 6 12 -9 9 -11 -12 -13 -14
leaf_value=0.0050970224972404091 0.034390482982204498 0.0320941953973247 -0.018123937367086222 -0.0087178701152944987 -0.036178055468766207 0.0050228900885297151 -0.041465753692184304 -0.025801433053382162 0.024036335695392142 0.034688809245608132 -0.0026120411282127038 0.007114213380775971 -0.027166885205757708
leaf_weight=4.0608894973993328 17.520918436348438 4.7361350059509286 5.4986108094453803 4.5407378524541855 12.878849998116491 5.3438281714916247 4.2157349735498419 6.1348074823617935 4.8024133890867224 3.4797627478837958 3.4837988466024425 4.5667003393173218 3.5910744816064835
leaf_count=19 126 27 31 26 85 28 25 37 31 24 20 23 24
internal_value=0.000247608 -0.0146874 0.00223666 0.0106109 -0.0237878 -0.0166996 -0.0214467 -0.0112728 0.0286401 0.0196067 0.0125772 -0.000462392 -0.0356946
internal_weight=84.8543 55.5674 19.3422 13.8436 36.2252 23.3463 19.2854 11.4786 29.2869 11.766 8.28621 9.10744 7.80681
internal_count=526 325 107 76 218 133 114 65 201 75 51 49 49
is_linear=0
shrinkage=0.03


end of trees

feature_importances:
FIB=99
IBIL=74
IntramuralNodule=44
Sex=38
GBMass=36
Line=32
Dilatation=26
GBMorphology=22
LymphNodes=21
Ultrasond=17
Gallstone=12

parameters:
[boosting: gbdt]
[objective: binary]
[metric: binary_logloss,auc]
[tree_learner: serial]
[device_type: cpu]
[data_sample_strategy: bagging]
[data: ]
[valid: ]
[num_iterations: 2000]
[learning_rate: 0.03]
[num_leaves: 64]
[num_threads: -1]
[seed: 42]
[deterministic: 0]
[force_col_wise: 0]
[force_row_wise: 0]
[histogram_pool_size: -1]
[max_depth: 8]
[min_data_in_leaf: 20]
[min_sum_hessian_in_leaf: 0.001]
[bagging_fraction: 0.8]
[pos_bagging_fraction: 1]
[neg_bagging_fraction: 1]
[bagging_freq: 5]
[bagging_seed: 400]
[bagging_by_query: 0]
[feature_fraction: 0.8]
[feature_fraction_bynode: 1]
[feature_fraction_seed: 30056]
[extra_trees: 0]
[extra_seed: 12879]
[early_stopping_round: 0]
[early_stopping_min_delta: 0]
[first_metric_only: 0]
[max_delta_step: 0]
[lambda_l1: 0.1]
[lambda_l2: 0.1]
[linear_lambda: 0]
[min_gain_to_split: 0]
[drop_rate: 0.1]
[max_drop: 50]
[skip_drop: 0.5]
[xgboost_dart_mode: 0]
[uniform_drop: 0]
[drop_seed: 17869]
[top_rate: 0.2]
[other_rate: 0.1]
[min_data_per_group: 100]
[max_cat_threshold: 32]
[cat_l2: 10]
[cat_smooth: 10]
[max_cat_to_onehot: 4]
[top_k: 20]
[monotone_constraints: ]
[monotone_constraints_method: basic]
[monotone_penalty: 0]
[feature_contri: ]
[forcedsplits_filename: ]
[refit_decay_rate: 0.9]
[cegb_tradeoff: 1]
[cegb_penalty_split: 0]
[cegb_penalty_feature_lazy: ]
[cegb_penalty_feature_coupled: ]
[path_smooth: 0]
[interaction_constraints: ]
[verbosity: -1]
[saved_feature_importance_type: 0]
[use_quantized_grad: 0]
[num_grad_quant_bins: 4]
[quant_train_renew_leaf: 0]
[stochastic_rounding: 1]
[linear_tree: 0]
[max_bin: 255]
[max_bin_by_feature: ]
[min_data_in_bin: 3]
[bin_construct_sample_cnt: 200000]
[data_random_seed: 175]
[is_enable_sparse: 1]
[enable_bundle: 1]
[use_missing: 1]
[zero_as_missing: 0]
[feature_pre_filter: 1]
[pre_partition: 0]
[two_round: 0]
[header: 0]
[label_column: ]
[weight_column: ]
[group_column: ]
[ignore_column: ]
[categorical_feature: ]
[forcedbins_filename: ]
[precise_float_parser: 0]
[parser_config_file: ]
[objective_seed: 16083]
[num_class: 1]
[is_unbalance: 0]
[scale_pos_weight: 1]
[sigmoid: 1]
[boost_from_average: 1]
[reg_sqrt: 0]
[alpha: 0.9]
[fair_c: 1]
[poisson_max_delta_step: 0.7]
[tweedie_variance_power: 1.5]
[lambdarank_truncation_level: 30]
[lambdarank_norm: 1]
[label_gain: ]
[lambdarank_position_bias_regularization: 0]
[eval_at: ]
[multi_error_top_k: 1]
[auc_mu_weights: ]
[num_machines: 1]
[local_listen_port: 12400]
[time_out: 120]
[machine_list_filename: ]
[machines: ]
[gpu_platform_id: -1]
[gpu_device_id: -1]
[gpu_use_dp: 0]
[num_gpu: 1]

end of parameters

pandas_categorical:[]
